digraph Tree {
node [shape=box] ;
0 [label="educational-num <= 12.5\ngini = 0.371\nsamples = 32223\nvalue = [24286, 7937]"] ;
1 [label="is_married <= 0.5\ngini = 0.278\nsamples = 24028\nvalue = [20018, 4010]"] ;
0 -> 1 [labeldistance=2.5, labelangle=45, headlabel="True"] ;
2 [label="capital-gain <= 8255.0\ngini = 0.064\nsamples = 13209\nvalue = [12775, 434]"] ;
1 -> 2 ;
3 [label="capital-loss <= 2218.5\ngini = 0.048\nsamples = 13097\nvalue = [12773, 324]"] ;
2 -> 3 ;
4 [label="age <= 33.5\ngini = 0.045\nsamples = 13045\nvalue = [12745, 300]"] ;
3 -> 4 ;
5 [label="occupation_Exec-managerial <= 0.5\ngini = 0.016\nsamples = 7374\nvalue = [7316, 58]"] ;
4 -> 5 ;
6 [label="hours-per-week <= 40.5\ngini = 0.012\nsamples = 7028\nvalue = [6985, 43]"] ;
5 -> 6 ;
7 [label="age <= 26.5\ngini = 0.007\nsamples = 5954\nvalue = [5934, 20]"] ;
6 -> 7 ;
8 [label="educational-num <= 3.5\ngini = 0.003\nsamples = 4226\nvalue = [4220, 6]"] ;
7 -> 8 ;
9 [label="occupation_Handlers-cleaners <= 0.5\ngini = 0.042\nsamples = 47\nvalue = [46, 1]"] ;
8 -> 9 ;
10 [label="gini = 0.0\nsamples = 37\nvalue = [37, 0]"] ;
9 -> 10 ;
11 [label="gini = 0.18\nsamples = 10\nvalue = [9, 1]"] ;
9 -> 11 ;
12 [label="gender <= 0.5\ngini = 0.002\nsamples = 4179\nvalue = [4174, 5]"] ;
8 -> 12 ;
13 [label="gini = 0.0\nsamples = 1984\nvalue = [1984, 0]"] ;
12 -> 13 ;
14 [label="gini = 0.005\nsamples = 2195\nvalue = [2190, 5]"] ;
12 -> 14 ;
15 [label="workclass_State-gov <= 0.5\ngini = 0.016\nsamples = 1728\nvalue = [1714, 14]"] ;
7 -> 15 ;
16 [label="workclass_Federal-gov <= 0.5\ngini = 0.013\nsamples = 1664\nvalue = [1653, 11]"] ;
15 -> 16 ;
17 [label="gini = 0.011\nsamples = 1624\nvalue = [1615, 9]"] ;
16 -> 17 ;
18 [label="gini = 0.095\nsamples = 40\nvalue = [38, 2]"] ;
16 -> 18 ;
19 [label="gender <= 0.5\ngini = 0.089\nsamples = 64\nvalue = [61, 3]"] ;
15 -> 19 ;
20 [label="gini = 0.0\nsamples = 36\nvalue = [36, 0]"] ;
19 -> 20 ;
21 [label="gini = 0.191\nsamples = 28\nvalue = [25, 3]"] ;
19 -> 21 ;
22 [label="capital-gain <= 4718.5\ngini = 0.042\nsamples = 1074\nvalue = [1051, 23]"] ;
6 -> 22 ;
23 [label="hours-per-week <= 41.5\ngini = 0.04\nsamples = 1070\nvalue = [1048, 22]"] ;
22 -> 23 ;
24 [label="gini = 0.245\nsamples = 7\nvalue = [6, 1]"] ;
23 -> 24 ;
25 [label="age <= 25.5\ngini = 0.039\nsamples = 1063\nvalue = [1042, 21]"] ;
23 -> 25 ;
26 [label="gini = 0.012\nsamples = 484\nvalue = [481, 3]"] ;
25 -> 26 ;
27 [label="gini = 0.06\nsamples = 579\nvalue = [561, 18]"] ;
25 -> 27 ;
28 [label="gini = 0.375\nsamples = 4\nvalue = [3, 1]"] ;
22 -> 28 ;
29 [label="hours-per-week <= 54.5\ngini = 0.083\nsamples = 346\nvalue = [331, 15]"] ;
5 -> 29 ;
30 [label="hours-per-week <= 49.0\ngini = 0.043\nsamples = 319\nvalue = [312, 7]"] ;
29 -> 30 ;
31 [label="gender <= 0.5\ngini = 0.027\nsamples = 291\nvalue = [287, 4]"] ;
30 -> 31 ;
32 [label="hours-per-week <= 44.0\ngini = 0.048\nsamples = 162\nvalue = [158, 4]"] ;
31 -> 32 ;
33 [label="gini = 0.039\nsamples = 151\nvalue = [148, 3]"] ;
32 -> 33 ;
34 [label="gini = 0.165\nsamples = 11\nvalue = [10, 1]"] ;
32 -> 34 ;
35 [label="gini = 0.0\nsamples = 129\nvalue = [129, 0]"] ;
31 -> 35 ;
36 [label="age <= 31.5\ngini = 0.191\nsamples = 28\nvalue = [25, 3]"] ;
30 -> 36 ;
37 [label="workclass_Private <= 0.5\ngini = 0.087\nsamples = 22\nvalue = [21, 1]"] ;
36 -> 37 ;
38 [label="gini = 0.375\nsamples = 4\nvalue = [3, 1]"] ;
37 -> 38 ;
39 [label="gini = 0.0\nsamples = 18\nvalue = [18, 0]"] ;
37 -> 39 ;
40 [label="gini = 0.444\nsamples = 6\nvalue = [4, 2]"] ;
36 -> 40 ;
41 [label="gender <= 0.5\ngini = 0.417\nsamples = 27\nvalue = [19, 8]"] ;
29 -> 41 ;
42 [label="gini = 0.0\nsamples = 6\nvalue = [6, 0]"] ;
41 -> 42 ;
43 [label="educational-num <= 10.5\ngini = 0.472\nsamples = 21\nvalue = [13, 8]"] ;
41 -> 43 ;
44 [label="age <= 30.0\ngini = 0.415\nsamples = 17\nvalue = [12, 5]"] ;
43 -> 44 ;
45 [label="gini = 0.496\nsamples = 11\nvalue = [6, 5]"] ;
44 -> 45 ;
46 [label="gini = 0.0\nsamples = 6\nvalue = [6, 0]"] ;
44 -> 46 ;
47 [label="gini = 0.375\nsamples = 4\nvalue = [1, 3]"] ;
43 -> 47 ;
48 [label="occupation_Prof-specialty <= 0.5\ngini = 0.082\nsamples = 5671\nvalue = [5429, 242]"] ;
4 -> 48 ;
49 [label="hours-per-week <= 41.5\ngini = 0.073\nsamples = 5370\nvalue = [5167, 203]"] ;
48 -> 49 ;
50 [label="occupation_Exec-managerial <= 0.5\ngini = 0.05\nsamples = 4212\nvalue = [4105, 107]"] ;
49 -> 50 ;
51 [label="capital-gain <= 4718.5\ngini = 0.04\nsamples = 3871\nvalue = [3791, 80]"] ;
50 -> 51 ;
52 [label="gender <= 0.5\ngini = 0.038\nsamples = 3838\nvalue = [3764, 74]"] ;
51 -> 52 ;
53 [label="gini = 0.021\nsamples = 2434\nvalue = [2408, 26]"] ;
52 -> 53 ;
54 [label="gini = 0.066\nsamples = 1404\nvalue = [1356, 48]"] ;
52 -> 54 ;
55 [label="capital-gain <= 4826.0\ngini = 0.298\nsamples = 33\nvalue = [27, 6]"] ;
51 -> 55 ;
56 [label="gini = 0.0\nsamples = 5\nvalue = [0, 5]"] ;
55 -> 56 ;
57 [label="gini = 0.069\nsamples = 28\nvalue = [27, 1]"] ;
55 -> 57 ;
58 [label="workclass_Local-gov <= 0.5\ngini = 0.146\nsamples = 341\nvalue = [314, 27]"] ;
50 -> 58 ;
59 [label="has_children <= 0.5\ngini = 0.16\nsamples = 307\nvalue = [280, 27]"] ;
58 -> 59 ;
60 [label="gini = 0.168\nsamples = 292\nvalue = [265, 27]"] ;
59 -> 60 ;
61 [label="gini = 0.0\nsamples = 15\nvalue = [15, 0]"] ;
59 -> 61 ;
62 [label="gini = 0.0\nsamples = 34\nvalue = [34, 0]"] ;
58 -> 62 ;
63 [label="capital-gain <= 4668.5\ngini = 0.152\nsamples = 1158\nvalue = [1062, 96]"] ;
49 -> 63 ;
64 [label="gender <= 0.5\ngini = 0.147\nsamples = 1140\nvalue = [1049, 91]"] ;
63 -> 64 ;
65 [label="workclass_Local-gov <= 0.5\ngini = 0.1\nsamples = 491\nvalue = [465, 26]"] ;
64 -> 65 ;
66 [label="gini = 0.093\nsamples = 468\nvalue = [445, 23]"] ;
65 -> 66 ;
67 [label="gini = 0.227\nsamples = 23\nvalue = [20, 3]"] ;
65 -> 67 ;
68 [label="educational-num <= 7.5\ngini = 0.18\nsamples = 649\nvalue = [584, 65]"] ;
64 -> 68 ;
69 [label="gini = 0.0\nsamples = 68\nvalue = [68, 0]"] ;
68 -> 69 ;
70 [label="gini = 0.199\nsamples = 581\nvalue = [516, 65]"] ;
68 -> 70 ;
71 [label="capital-gain <= 5194.5\ngini = 0.401\nsamples = 18\nvalue = [13, 5]"] ;
63 -> 71 ;
72 [label="gini = 0.278\nsamples = 6\nvalue = [1, 5]"] ;
71 -> 72 ;
73 [label="gini = 0.0\nsamples = 12\nvalue = [12, 0]"] ;
71 -> 73 ;
74 [label="gender <= 0.5\ngini = 0.226\nsamples = 301\nvalue = [262, 39]"] ;
48 -> 74 ;
75 [label="workclass_Federal-gov <= 0.5\ngini = 0.139\nsamples = 226\nvalue = [209, 17]"] ;
74 -> 75 ;
76 [label="age <= 35.5\ngini = 0.122\nsamples = 215\nvalue = [201, 14]"] ;
75 -> 76 ;
77 [label="workclass_State-gov <= 0.5\ngini = 0.266\nsamples = 19\nvalue = [16, 3]"] ;
76 -> 77 ;
78 [label="gini = 0.305\nsamples = 16\nvalue = [13, 3]"] ;
77 -> 78 ;
79 [label="gini = 0.0\nsamples = 3\nvalue = [3, 0]"] ;
77 -> 79 ;
80 [label="hours-per-week <= 46.5\ngini = 0.106\nsamples = 196\nvalue = [185, 11]"] ;
76 -> 80 ;
81 [label="gini = 0.088\nsamples = 174\nvalue = [166, 8]"] ;
80 -> 81 ;
82 [label="gini = 0.236\nsamples = 22\nvalue = [19, 3]"] ;
80 -> 82 ;
83 [label="age <= 40.0\ngini = 0.397\nsamples = 11\nvalue = [8, 3]"] ;
75 -> 83 ;
84 [label="gini = 0.0\nsamples = 3\nvalue = [3, 0]"] ;
83 -> 84 ;
85 [label="gini = 0.469\nsamples = 8\nvalue = [5, 3]"] ;
83 -> 85 ;
86 [label="is_white <= 0.5\ngini = 0.415\nsamples = 75\nvalue = [53, 22]"] ;
74 -> 86 ;
87 [label="gini = 0.444\nsamples = 6\nvalue = [2, 4]"] ;
86 -> 87 ;
88 [label="age <= 56.5\ngini = 0.386\nsamples = 69\nvalue = [51, 18]"] ;
86 -> 88 ;
89 [label="has_children <= 0.5\ngini = 0.344\nsamples = 59\nvalue = [46, 13]"] ;
88 -> 89 ;
90 [label="gini = 0.375\nsamples = 52\nvalue = [39, 13]"] ;
89 -> 90 ;
91 [label="gini = 0.0\nsamples = 7\nvalue = [7, 0]"] ;
89 -> 91 ;
92 [label="hours-per-week <= 30.0\ngini = 0.5\nsamples = 10\nvalue = [5, 5]"] ;
88 -> 92 ;
93 [label="gini = 0.0\nsamples = 4\nvalue = [4, 0]"] ;
92 -> 93 ;
94 [label="gini = 0.278\nsamples = 6\nvalue = [1, 5]"] ;
92 -> 94 ;
95 [label="capital-loss <= 2391.5\ngini = 0.497\nsamples = 52\nvalue = [28, 24]"] ;
3 -> 95 ;
96 [label="capital-loss <= 2310.5\ngini = 0.422\nsamples = 33\nvalue = [23, 10]"] ;
95 -> 96 ;
97 [label="age <= 44.5\ngini = 0.494\nsamples = 18\nvalue = [8, 10]"] ;
96 -> 97 ;
98 [label="educational-num <= 9.5\ngini = 0.397\nsamples = 11\nvalue = [8, 3]"] ;
97 -> 98 ;
99 [label="gini = 0.0\nsamples = 4\nvalue = [4, 0]"] ;
98 -> 99 ;
100 [label="gini = 0.49\nsamples = 7\nvalue = [4, 3]"] ;
98 -> 100 ;
101 [label="gini = 0.0\nsamples = 7\nvalue = [0, 7]"] ;
97 -> 101 ;
102 [label="gini = 0.0\nsamples = 15\nvalue = [15, 0]"] ;
96 -> 102 ;
103 [label="capital-loss <= 3089.5\ngini = 0.388\nsamples = 19\nvalue = [5, 14]"] ;
95 -> 103 ;
104 [label="educational-num <= 8.0\ngini = 0.124\nsamples = 15\nvalue = [1, 14]"] ;
103 -> 104 ;
105 [label="gini = 0.375\nsamples = 4\nvalue = [1, 3]"] ;
104 -> 105 ;
106 [label="gini = 0.0\nsamples = 11\nvalue = [0, 11]"] ;
104 -> 106 ;
107 [label="gini = 0.0\nsamples = 4\nvalue = [4, 0]"] ;
103 -> 107 ;
108 [label="age <= 21.5\ngini = 0.035\nsamples = 112\nvalue = [2, 110]"] ;
2 -> 108 ;
109 [label="gini = 0.444\nsamples = 3\nvalue = [2, 1]"] ;
108 -> 109 ;
110 [label="gini = 0.0\nsamples = 109\nvalue = [0, 109]"] ;
108 -> 110 ;
111 [label="capital-gain <= 5095.5\ngini = 0.443\nsamples = 10819\nvalue = [7243, 3576]"] ;
1 -> 111 ;
112 [label="educational-num <= 8.5\ngini = 0.417\nsamples = 10277\nvalue = [7233, 3044]"] ;
111 -> 112 ;
113 [label="hours-per-week <= 40.5\ngini = 0.193\nsamples = 1751\nvalue = [1562, 189]"] ;
112 -> 113 ;
114 [label="capital-loss <= 1805.0\ngini = 0.145\nsamples = 1304\nvalue = [1201, 103]"] ;
113 -> 114 ;
115 [label="age <= 37.5\ngini = 0.137\nsamples = 1280\nvalue = [1185, 95]"] ;
114 -> 115 ;
116 [label="occupation_Tech-support <= 0.5\ngini = 0.063\nsamples = 457\nvalue = [442, 15]"] ;
115 -> 116 ;
117 [label="workclass_State-gov <= 0.5\ngini = 0.056\nsamples = 452\nvalue = [439, 13]"] ;
116 -> 117 ;
118 [label="workclass_Self-emp-inc <= 0.5\ngini = 0.052\nsamples = 445\nvalue = [433, 12]"] ;
117 -> 118 ;
119 [label="gini = 0.049\nsamples = 442\nvalue = [431, 11]"] ;
118 -> 119 ;
120 [label="gini = 0.444\nsamples = 3\nvalue = [2, 1]"] ;
118 -> 120 ;
121 [label="gini = 0.245\nsamples = 7\nvalue = [6, 1]"] ;
117 -> 121 ;
122 [label="gini = 0.48\nsamples = 5\nvalue = [3, 2]"] ;
116 -> 122 ;
123 [label="educational-num <= 5.5\ngini = 0.176\nsamples = 823\nvalue = [743, 80]"] ;
115 -> 123 ;
124 [label="occupation_Sales <= 0.5\ngini = 0.113\nsamples = 481\nvalue = [452, 29]"] ;
123 -> 124 ;
125 [label="hours-per-week <= 39.5\ngini = 0.096\nsamples = 456\nvalue = [433, 23]"] ;
124 -> 125 ;
126 [label="gini = 0.0\nsamples = 114\nvalue = [114, 0]"] ;
125 -> 126 ;
127 [label="gini = 0.125\nsamples = 342\nvalue = [319, 23]"] ;
125 -> 127 ;
128 [label="hours-per-week <= 27.5\ngini = 0.365\nsamples = 25\nvalue = [19, 6]"] ;
124 -> 128 ;
129 [label="gini = 0.0\nsamples = 6\nvalue = [6, 0]"] ;
128 -> 129 ;
130 [label="gini = 0.432\nsamples = 19\nvalue = [13, 6]"] ;
128 -> 130 ;
131 [label="capital-gain <= 4225.0\ngini = 0.254\nsamples = 342\nvalue = [291, 51]"] ;
123 -> 131 ;
132 [label="occupation_Prof-specialty <= 0.5\ngini = 0.244\nsamples = 338\nvalue = [290, 48]"] ;
131 -> 132 ;
133 [label="gini = 0.233\nsamples = 334\nvalue = [289, 45]"] ;
132 -> 133 ;
134 [label="gini = 0.375\nsamples = 4\nvalue = [1, 3]"] ;
132 -> 134 ;
135 [label="gini = 0.375\nsamples = 4\nvalue = [1, 3]"] ;
131 -> 135 ;
136 [label="capital-loss <= 1952.0\ngini = 0.444\nsamples = 24\nvalue = [16, 8]"] ;
114 -> 136 ;
137 [label="occupation_Craft-repair <= 0.5\ngini = 0.32\nsamples = 10\nvalue = [2, 8]"] ;
136 -> 137 ;
138 [label="gini = 0.444\nsamples = 6\nvalue = [2, 4]"] ;
137 -> 138 ;
139 [label="gini = 0.0\nsamples = 4\nvalue = [0, 4]"] ;
137 -> 139 ;
140 [label="gini = 0.0\nsamples = 14\nvalue = [14, 0]"] ;
136 -> 140 ;
141 [label="age <= 43.5\ngini = 0.311\nsamples = 447\nvalue = [361, 86]"] ;
113 -> 141 ;
142 [label="from_US <= 0.5\ngini = 0.227\nsamples = 215\nvalue = [187, 28]"] ;
141 -> 142 ;
143 [label="workclass_Self-emp-not-inc <= 0.5\ngini = 0.107\nsamples = 53\nvalue = [50, 3]"] ;
142 -> 143 ;
144 [label="occupation_Adm-clerical <= 0.5\ngini = 0.043\nsamples = 46\nvalue = [45, 1]"] ;
143 -> 144 ;
145 [label="gini = 0.0\nsamples = 43\nvalue = [43, 0]"] ;
144 -> 145 ;
146 [label="gini = 0.444\nsamples = 3\nvalue = [2, 1]"] ;
144 -> 146 ;
147 [label="gini = 0.408\nsamples = 7\nvalue = [5, 2]"] ;
143 -> 147 ;
148 [label="has_children <= 0.5\ngini = 0.261\nsamples = 162\nvalue = [137, 25]"] ;
142 -> 148 ;
149 [label="capital-gain <= 2841.5\ngini = 0.247\nsamples = 159\nvalue = [136, 23]"] ;
148 -> 149 ;
150 [label="age <= 40.5\ngini = 0.233\nsamples = 156\nvalue = [135, 21]"] ;
149 -> 150 ;
151 [label="gini = 0.257\nsamples = 139\nvalue = [118, 21]"] ;
150 -> 151 ;
152 [label="gini = 0.0\nsamples = 17\nvalue = [17, 0]"] ;
150 -> 152 ;
153 [label="gini = 0.444\nsamples = 3\nvalue = [1, 2]"] ;
149 -> 153 ;
154 [label="gini = 0.444\nsamples = 3\nvalue = [1, 2]"] ;
148 -> 154 ;
155 [label="occupation_Exec-managerial <= 0.5\ngini = 0.375\nsamples = 232\nvalue = [174, 58]"] ;
141 -> 155 ;
156 [label="occupation_Transport-moving <= 0.5\ngini = 0.334\nsamples = 203\nvalue = [160, 43]"] ;
155 -> 156 ;
157 [label="workclass_Self-emp-inc <= 0.5\ngini = 0.3\nsamples = 158\nvalue = [129, 29]"] ;
156 -> 157 ;
158 [label="age <= 53.5\ngini = 0.272\nsamples = 148\nvalue = [124, 24]"] ;
157 -> 158 ;
159 [label="gini = 0.339\nsamples = 74\nvalue = [58, 16]"] ;
158 -> 159 ;
160 [label="gini = 0.193\nsamples = 74\nvalue = [66, 8]"] ;
158 -> 160 ;
161 [label="age <= 55.5\ngini = 0.5\nsamples = 10\nvalue = [5, 5]"] ;
157 -> 161 ;
162 [label="gini = 0.444\nsamples = 6\nvalue = [2, 4]"] ;
161 -> 162 ;
163 [label="gini = 0.375\nsamples = 4\nvalue = [3, 1]"] ;
161 -> 163 ;
164 [label="educational-num <= 6.5\ngini = 0.429\nsamples = 45\nvalue = [31, 14]"] ;
156 -> 164 ;
165 [label="educational-num <= 3.5\ngini = 0.47\nsamples = 37\nvalue = [23, 14]"] ;
164 -> 165 ;
166 [label="gini = 0.0\nsamples = 5\nvalue = [5, 0]"] ;
165 -> 166 ;
167 [label="gini = 0.492\nsamples = 32\nvalue = [18, 14]"] ;
165 -> 167 ;
168 [label="gini = 0.0\nsamples = 8\nvalue = [8, 0]"] ;
164 -> 168 ;
169 [label="gender <= 0.5\ngini = 0.499\nsamples = 29\nvalue = [14, 15]"] ;
155 -> 169 ;
170 [label="gini = 0.0\nsamples = 3\nvalue = [3, 0]"] ;
169 -> 170 ;
171 [label="age <= 45.5\ngini = 0.488\nsamples = 26\nvalue = [11, 15]"] ;
169 -> 171 ;
172 [label="gini = 0.0\nsamples = 3\nvalue = [0, 3]"] ;
171 -> 172 ;
173 [label="educational-num <= 3.5\ngini = 0.499\nsamples = 23\nvalue = [11, 12]"] ;
171 -> 173 ;
174 [label="gini = 0.0\nsamples = 3\nvalue = [0, 3]"] ;
173 -> 174 ;
175 [label="gini = 0.495\nsamples = 20\nvalue = [11, 9]"] ;
173 -> 175 ;
176 [label="capital-loss <= 1846.0\ngini = 0.445\nsamples = 8526\nvalue = [5671, 2855]"] ;
112 -> 176 ;
177 [label="age <= 35.5\ngini = 0.433\nsamples = 8200\nvalue = [5600, 2600]"] ;
176 -> 177 ;
178 [label="educational-num <= 9.5\ngini = 0.332\nsamples = 2824\nvalue = [2231, 593]"] ;
177 -> 178 ;
179 [label="age <= 26.5\ngini = 0.271\nsamples = 1544\nvalue = [1295, 249]"] ;
178 -> 179 ;
180 [label="hours-per-week <= 41.0\ngini = 0.119\nsamples = 347\nvalue = [325, 22]"] ;
179 -> 180 ;
181 [label="capital-gain <= 4164.0\ngini = 0.087\nsamples = 240\nvalue = [229, 11]"] ;
180 -> 181 ;
182 [label="gini = 0.081\nsamples = 237\nvalue = [227, 10]"] ;
181 -> 182 ;
183 [label="gini = 0.444\nsamples = 3\nvalue = [2, 1]"] ;
181 -> 183 ;
184 [label="workclass_Local-gov <= 0.5\ngini = 0.184\nsamples = 107\nvalue = [96, 11]"] ;
180 -> 184 ;
185 [label="gini = 0.158\nsamples = 104\nvalue = [95, 9]"] ;
184 -> 185 ;
186 [label="gini = 0.444\nsamples = 3\nvalue = [1, 2]"] ;
184 -> 186 ;
187 [label="hours-per-week <= 40.5\ngini = 0.307\nsamples = 1197\nvalue = [970, 227]"] ;
179 -> 187 ;
188 [label="workclass_Self-emp-inc <= 0.5\ngini = 0.256\nsamples = 778\nvalue = [661, 117]"] ;
187 -> 188 ;
189 [label="gini = 0.249\nsamples = 769\nvalue = [657, 112]"] ;
188 -> 189 ;
190 [label="gini = 0.494\nsamples = 9\nvalue = [4, 5]"] ;
188 -> 190 ;
191 [label="occupation_Exec-managerial <= 0.5\ngini = 0.387\nsamples = 419\nvalue = [309, 110]"] ;
187 -> 191 ;
192 [label="gini = 0.366\nsamples = 373\nvalue = [283, 90]"] ;
191 -> 192 ;
193 [label="gini = 0.491\nsamples = 46\nvalue = [26, 20]"] ;
191 -> 193 ;
194 [label="age <= 28.5\ngini = 0.393\nsamples = 1280\nvalue = [936, 344]"] ;
178 -> 194 ;
195 [label="age <= 24.5\ngini = 0.277\nsamples = 469\nvalue = [391, 78]"] ;
194 -> 195 ;
196 [label="hours-per-week <= 64.0\ngini = 0.15\nsamples = 159\nvalue = [146, 13]"] ;
195 -> 196 ;
197 [label="gini = 0.131\nsamples = 156\nvalue = [145, 11]"] ;
196 -> 197 ;
198 [label="gini = 0.444\nsamples = 3\nvalue = [1, 2]"] ;
196 -> 198 ;
199 [label="hours-per-week <= 33.5\ngini = 0.331\nsamples = 310\nvalue = [245, 65]"] ;
195 -> 199 ;
200 [label="gini = 0.074\nsamples = 26\nvalue = [25, 1]"] ;
199 -> 200 ;
201 [label="gini = 0.349\nsamples = 284\nvalue = [220, 64]"] ;
199 -> 201 ;
202 [label="capital-loss <= 1532.0\ngini = 0.441\nsamples = 811\nvalue = [545, 266]"] ;
194 -> 202 ;
203 [label="capital-loss <= 742.5\ngini = 0.446\nsamples = 794\nvalue = [528, 266]"] ;
202 -> 203 ;
204 [label="gini = 0.442\nsamples = 787\nvalue = [527, 260]"] ;
203 -> 204 ;
205 [label="gini = 0.245\nsamples = 7\nvalue = [1, 6]"] ;
203 -> 205 ;
206 [label="gini = 0.0\nsamples = 17\nvalue = [17, 0]"] ;
202 -> 206 ;
207 [label="hours-per-week <= 35.5\ngini = 0.468\nsamples = 5376\nvalue = [3369, 2007]"] ;
177 -> 207 ;
208 [label="educational-num <= 9.5\ngini = 0.284\nsamples = 625\nvalue = [518, 107]"] ;
207 -> 208 ;
209 [label="age <= 64.5\ngini = 0.2\nsamples = 372\nvalue = [330, 42]"] ;
208 -> 209 ;
210 [label="occupation_Exec-managerial <= 0.5\ngini = 0.246\nsamples = 279\nvalue = [239, 40]"] ;
209 -> 210 ;
211 [label="gini = 0.219\nsamples = 256\nvalue = [224, 32]"] ;
210 -> 211 ;
212 [label="gini = 0.454\nsamples = 23\nvalue = [15, 8]"] ;
210 -> 212 ;
213 [label="workclass_Self-emp-inc <= 0.5\ngini = 0.042\nsamples = 93\nvalue = [91, 2]"] ;
209 -> 213 ;
214 [label="gini = 0.0\nsamples = 88\nvalue = [88, 0]"] ;
213 -> 214 ;
215 [label="gini = 0.48\nsamples = 5\nvalue = [3, 2]"] ;
213 -> 215 ;
216 [label="age <= 44.5\ngini = 0.382\nsamples = 253\nvalue = [188, 65]"] ;
208 -> 216 ;
217 [label="occupation_Tech-support <= 0.5\ngini = 0.462\nsamples = 83\nvalue = [53, 30]"] ;
216 -> 217 ;
218 [label="gini = 0.444\nsamples = 78\nvalue = [52, 26]"] ;
217 -> 218 ;
219 [label="gini = 0.32\nsamples = 5\nvalue = [1, 4]"] ;
217 -> 219 ;
220 [label="hours-per-week <= 7.0\ngini = 0.327\nsamples = 170\nvalue = [135, 35]"] ;
216 -> 220 ;
221 [label="gini = 0.48\nsamples = 5\nvalue = [2, 3]"] ;
220 -> 221 ;
222 [label="gini = 0.313\nsamples = 165\nvalue = [133, 32]"] ;
220 -> 222 ;
223 [label="educational-num <= 9.5\ngini = 0.48\nsamples = 4751\nvalue = [2851, 1900]"] ;
207 -> 223 ;
224 [label="occupation_Exec-managerial <= 0.5\ngini = 0.449\nsamples = 2621\nvalue = [1728, 893]"] ;
223 -> 224 ;
225 [label="occupation_Farming-fishing <= 0.5\ngini = 0.437\nsamples = 2339\nvalue = [1584, 755]"] ;
224 -> 225 ;
226 [label="gini = 0.445\nsamples = 2201\nvalue = [1466, 735]"] ;
225 -> 226 ;
227 [label="gini = 0.248\nsamples = 138\nvalue = [118, 20]"] ;
225 -> 227 ;
228 [label="gender <= 0.5\ngini = 0.5\nsamples = 282\nvalue = [144, 138]"] ;
224 -> 228 ;
229 [label="gini = 0.435\nsamples = 25\nvalue = [17, 8]"] ;
228 -> 229 ;
230 [label="gini = 0.5\nsamples = 257\nvalue = [127, 130]"] ;
228 -> 230 ;
231 [label="workclass_Self-emp-not-inc <= 0.5\ngini = 0.499\nsamples = 2130\nvalue = [1123, 1007]"] ;
223 -> 231 ;
232 [label="occupation_Exec-managerial <= 0.5\ngini = 0.5\nsamples = 1890\nvalue = [952, 938]"] ;
231 -> 232 ;
233 [label="gini = 0.498\nsamples = 1566\nvalue = [832, 734]"] ;
232 -> 233 ;
234 [label="gini = 0.466\nsamples = 324\nvalue = [120, 204]"] ;
232 -> 234 ;
235 [label="occupation_Exec-managerial <= 0.5\ngini = 0.41\nsamples = 240\nvalue = [171, 69]"] ;
231 -> 235 ;
236 [label="gini = 0.379\nsamples = 197\nvalue = [147, 50]"] ;
235 -> 236 ;
237 [label="gini = 0.493\nsamples = 43\nvalue = [24, 19]"] ;
235 -> 237 ;
238 [label="age <= 38.5\ngini = 0.341\nsamples = 326\nvalue = [71, 255]"] ;
176 -> 238 ;
239 [label="capital-loss <= 1989.5\ngini = 0.436\nsamples = 106\nvalue = [34, 72]"] ;
238 -> 239 ;
240 [label="capital-loss <= 1894.5\ngini = 0.126\nsamples = 74\nvalue = [5, 69]"] ;
239 -> 240 ;
241 [label="gini = 0.0\nsamples = 39\nvalue = [0, 39]"] ;
240 -> 241 ;
242 [label="occupation_Sales <= 0.5\ngini = 0.245\nsamples = 35\nvalue = [5, 30]"] ;
240 -> 242 ;
243 [label="hours-per-week <= 39.0\ngini = 0.311\nsamples = 26\nvalue = [5, 21]"] ;
242 -> 243 ;
244 [label="gini = 0.0\nsamples = 5\nvalue = [0, 5]"] ;
243 -> 244 ;
245 [label="gini = 0.363\nsamples = 21\nvalue = [5, 16]"] ;
243 -> 245 ;
246 [label="gini = 0.0\nsamples = 9\nvalue = [0, 9]"] ;
242 -> 246 ;
247 [label="capital-loss <= 2396.0\ngini = 0.17\nsamples = 32\nvalue = [29, 3]"] ;
239 -> 247 ;
248 [label="gini = 0.0\nsamples = 28\nvalue = [28, 0]"] ;
247 -> 248 ;
249 [label="gini = 0.375\nsamples = 4\nvalue = [1, 3]"] ;
247 -> 249 ;
250 [label="educational-num <= 9.5\ngini = 0.28\nsamples = 220\nvalue = [37, 183]"] ;
238 -> 250 ;
251 [label="capital-loss <= 1989.5\ngini = 0.365\nsamples = 104\nvalue = [25, 79]"] ;
250 -> 251 ;
252 [label="age <= 57.5\ngini = 0.053\nsamples = 74\nvalue = [2, 72]"] ;
251 -> 252 ;
253 [label="occupation_Machine-op-inspct <= 0.5\ngini = 0.029\nsamples = 67\nvalue = [1, 66]"] ;
252 -> 253 ;
254 [label="gini = 0.0\nsamples = 61\nvalue = [0, 61]"] ;
253 -> 254 ;
255 [label="gini = 0.278\nsamples = 6\nvalue = [1, 5]"] ;
253 -> 255 ;
256 [label="gini = 0.245\nsamples = 7\nvalue = [1, 6]"] ;
252 -> 256 ;
257 [label="age <= 63.0\ngini = 0.358\nsamples = 30\nvalue = [23, 7]"] ;
251 -> 257 ;
258 [label="capital-loss <= 2212.5\ngini = 0.105\nsamples = 18\nvalue = [17, 1]"] ;
257 -> 258 ;
259 [label="gini = 0.0\nsamples = 15\nvalue = [15, 0]"] ;
258 -> 259 ;
260 [label="gini = 0.444\nsamples = 3\nvalue = [2, 1]"] ;
258 -> 260 ;
261 [label="capital-loss <= 2424.5\ngini = 0.5\nsamples = 12\nvalue = [6, 6]"] ;
257 -> 261 ;
262 [label="gini = 0.444\nsamples = 9\nvalue = [3, 6]"] ;
261 -> 262 ;
263 [label="gini = 0.0\nsamples = 3\nvalue = [3, 0]"] ;
261 -> 263 ;
264 [label="capital-loss <= 1989.5\ngini = 0.185\nsamples = 116\nvalue = [12, 104]"] ;
250 -> 264 ;
265 [label="occupation_Exec-managerial <= 0.5\ngini = 0.021\nsamples = 93\nvalue = [1, 92]"] ;
264 -> 265 ;
266 [label="gini = 0.0\nsamples = 69\nvalue = [0, 69]"] ;
265 -> 266 ;
267 [label="age <= 50.0\ngini = 0.08\nsamples = 24\nvalue = [1, 23]"] ;
265 -> 267 ;
268 [label="gini = 0.0\nsamples = 12\nvalue = [0, 12]"] ;
267 -> 268 ;
269 [label="gini = 0.153\nsamples = 12\nvalue = [1, 11]"] ;
267 -> 269 ;
270 [label="capital-loss <= 2161.5\ngini = 0.499\nsamples = 23\nvalue = [11, 12]"] ;
264 -> 270 ;
271 [label="gini = 0.0\nsamples = 5\nvalue = [5, 0]"] ;
270 -> 271 ;
272 [label="age <= 59.5\ngini = 0.444\nsamples = 18\nvalue = [6, 12]"] ;
270 -> 272 ;
273 [label="gini = 0.496\nsamples = 11\nvalue = [6, 5]"] ;
272 -> 273 ;
274 [label="gini = 0.0\nsamples = 7\nvalue = [0, 7]"] ;
272 -> 274 ;
275 [label="age <= 60.5\ngini = 0.036\nsamples = 542\nvalue = [10, 532]"] ;
111 -> 275 ;
276 [label="educational-num <= 3.5\ngini = 0.008\nsamples = 479\nvalue = [2, 477]"] ;
275 -> 276 ;
277 [label="gini = 0.444\nsamples = 3\nvalue = [1, 2]"] ;
276 -> 277 ;
278 [label="hours-per-week <= 87.0\ngini = 0.004\nsamples = 476\nvalue = [1, 475]"] ;
276 -> 278 ;
279 [label="gini = 0.0\nsamples = 471\nvalue = [0, 471]"] ;
278 -> 279 ;
280 [label="gini = 0.32\nsamples = 5\nvalue = [1, 4]"] ;
278 -> 280 ;
281 [label="occupation_Transport-moving <= 0.5\ngini = 0.222\nsamples = 63\nvalue = [8, 55]"] ;
275 -> 281 ;
282 [label="occupation_Exec-managerial <= 0.5\ngini = 0.185\nsamples = 58\nvalue = [6, 52]"] ;
281 -> 282 ;
283 [label="capital-gain <= 6640.5\ngini = 0.255\nsamples = 40\nvalue = [6, 34]"] ;
282 -> 283 ;
284 [label="gini = 0.0\nsamples = 10\nvalue = [0, 10]"] ;
283 -> 284 ;
285 [label="capital-gain <= 7032.5\ngini = 0.32\nsamples = 30\nvalue = [6, 24]"] ;
283 -> 285 ;
286 [label="gini = 0.0\nsamples = 3\nvalue = [3, 0]"] ;
285 -> 286 ;
287 [label="workclass_Private <= 0.5\ngini = 0.198\nsamples = 27\nvalue = [3, 24]"] ;
285 -> 287 ;
288 [label="age <= 62.5\ngini = 0.305\nsamples = 16\nvalue = [3, 13]"] ;
287 -> 288 ;
289 [label="gini = 0.5\nsamples = 4\nvalue = [2, 2]"] ;
288 -> 289 ;
290 [label="gini = 0.153\nsamples = 12\nvalue = [1, 11]"] ;
288 -> 290 ;
291 [label="gini = 0.0\nsamples = 11\nvalue = [0, 11]"] ;
287 -> 291 ;
292 [label="gini = 0.0\nsamples = 18\nvalue = [0, 18]"] ;
282 -> 292 ;
293 [label="gini = 0.48\nsamples = 5\nvalue = [2, 3]"] ;
281 -> 293 ;
294 [label="is_married <= 0.5\ngini = 0.499\nsamples = 8195\nvalue = [4268, 3927]"] ;
0 -> 294 [labeldistance=2.5, labelangle=-45, headlabel="False"] ;
295 [label="educational-num <= 13.5\ngini = 0.313\nsamples = 3604\nvalue = [2903, 701]"] ;
294 -> 295 ;
296 [label="age <= 28.5\ngini = 0.235\nsamples = 2572\nvalue = [2223, 349]"] ;
295 -> 296 ;
297 [label="capital-loss <= 2218.0\ngini = 0.064\nsamples = 1024\nvalue = [990, 34]"] ;
296 -> 297 ;
298 [label="capital-gain <= 7731.5\ngini = 0.059\nsamples = 1018\nvalue = [987, 31]"] ;
297 -> 298 ;
299 [label="age <= 24.5\ngini = 0.039\nsamples = 1007\nvalue = [987, 20]"] ;
298 -> 299 ;
300 [label="hours-per-week <= 57.5\ngini = 0.005\nsamples = 442\nvalue = [441, 1]"] ;
299 -> 300 ;
301 [label="gini = 0.0\nsamples = 426\nvalue = [426, 0]"] ;
300 -> 301 ;
302 [label="age <= 23.5\ngini = 0.117\nsamples = 16\nvalue = [15, 1]"] ;
300 -> 302 ;
303 [label="gini = 0.0\nsamples = 7\nvalue = [7, 0]"] ;
302 -> 303 ;
304 [label="gini = 0.198\nsamples = 9\nvalue = [8, 1]"] ;
302 -> 304 ;
305 [label="hours-per-week <= 67.5\ngini = 0.065\nsamples = 565\nvalue = [546, 19]"] ;
299 -> 305 ;
306 [label="capital-loss <= 1486.0\ngini = 0.059\nsamples = 556\nvalue = [539, 17]"] ;
305 -> 306 ;
307 [label="occupation_Craft-repair <= 0.5\ngini = 0.051\nsamples = 535\nvalue = [521, 14]"] ;
306 -> 307 ;
308 [label="gini = 0.045\nsamples = 517\nvalue = [505, 12]"] ;
307 -> 308 ;
309 [label="gini = 0.198\nsamples = 18\nvalue = [16, 2]"] ;
307 -> 309 ;
310 [label="gender <= 0.5\ngini = 0.245\nsamples = 21\nvalue = [18, 3]"] ;
306 -> 310 ;
311 [label="gini = 0.469\nsamples = 8\nvalue = [5, 3]"] ;
310 -> 311 ;
312 [label="gini = 0.0\nsamples = 13\nvalue = [13, 0]"] ;
310 -> 312 ;
313 [label="gini = 0.346\nsamples = 9\nvalue = [7, 2]"] ;
305 -> 313 ;
314 [label="gini = 0.0\nsamples = 11\nvalue = [0, 11]"] ;
298 -> 314 ;
315 [label="gini = 0.5\nsamples = 6\nvalue = [3, 3]"] ;
297 -> 315 ;
316 [label="capital-gain <= 7139.5\ngini = 0.324\nsamples = 1548\nvalue = [1233, 315]"] ;
296 -> 316 ;
317 [label="age <= 42.5\ngini = 0.276\nsamples = 1476\nvalue = [1232, 244]"] ;
316 -> 317 ;
318 [label="hours-per-week <= 47.5\ngini = 0.223\nsamples = 907\nvalue = [791, 116]"] ;
317 -> 318 ;
319 [label="capital-loss <= 2391.5\ngini = 0.128\nsamples = 672\nvalue = [626, 46]"] ;
318 -> 319 ;
320 [label="gender <= 0.5\ngini = 0.12\nsamples = 669\nvalue = [626, 43]"] ;
319 -> 320 ;
321 [label="occupation_Tech-support <= 0.5\ngini = 0.074\nsamples = 362\nvalue = [348, 14]"] ;
320 -> 321 ;
322 [label="gini = 0.062\nsamples = 343\nvalue = [332, 11]"] ;
321 -> 322 ;
323 [label="gini = 0.266\nsamples = 19\nvalue = [16, 3]"] ;
321 -> 323 ;
324 [label="occupation_Sales <= 0.5\ngini = 0.171\nsamples = 307\nvalue = [278, 29]"] ;
320 -> 324 ;
325 [label="gini = 0.14\nsamples = 264\nvalue = [244, 20]"] ;
324 -> 325 ;
326 [label="gini = 0.331\nsamples = 43\nvalue = [34, 9]"] ;
324 -> 326 ;
327 [label="gini = 0.0\nsamples = 3\nvalue = [0, 3]"] ;
319 -> 327 ;
328 [label="workclass_Private <= 0.5\ngini = 0.418\nsamples = 235\nvalue = [165, 70]"] ;
318 -> 328 ;
329 [label="age <= 33.5\ngini = 0.317\nsamples = 71\nvalue = [57, 14]"] ;
328 -> 329 ;
330 [label="capital-loss <= 1486.0\ngini = 0.444\nsamples = 24\nvalue = [16, 8]"] ;
329 -> 330 ;
331 [label="gini = 0.408\nsamples = 21\nvalue = [15, 6]"] ;
330 -> 331 ;
332 [label="gini = 0.444\nsamples = 3\nvalue = [1, 2]"] ;
330 -> 332 ;
333 [label="hours-per-week <= 57.5\ngini = 0.223\nsamples = 47\nvalue = [41, 6]"] ;
329 -> 333 ;
334 [label="gini = 0.285\nsamples = 29\nvalue = [24, 5]"] ;
333 -> 334 ;
335 [label="gini = 0.105\nsamples = 18\nvalue = [17, 1]"] ;
333 -> 335 ;
336 [label="occupation_Other-service <= 0.5\ngini = 0.45\nsamples = 164\nvalue = [108, 56]"] ;
328 -> 336 ;
337 [label="hours-per-week <= 78.5\ngini = 0.459\nsamples = 157\nvalue = [101, 56]"] ;
336 -> 337 ;
338 [label="gini = 0.451\nsamples = 154\nvalue = [101, 53]"] ;
337 -> 338 ;
339 [label="gini = 0.0\nsamples = 3\nvalue = [0, 3]"] ;
337 -> 339 ;
340 [label="gini = 0.0\nsamples = 7\nvalue = [7, 0]"] ;
336 -> 340 ;
341 [label="capital-loss <= 2218.5\ngini = 0.349\nsamples = 569\nvalue = [441, 128]"] ;
317 -> 341 ;
342 [label="hours-per-week <= 42.5\ngini = 0.332\nsamples = 556\nvalue = [439, 117]"] ;
341 -> 342 ;
343 [label="hours-per-week <= 37.5\ngini = 0.262\nsamples = 354\nvalue = [299, 55]"] ;
342 -> 343 ;
344 [label="occupation_Sales <= 0.5\ngini = 0.111\nsamples = 102\nvalue = [96, 6]"] ;
343 -> 344 ;
345 [label="gini = 0.068\nsamples = 85\nvalue = [82, 3]"] ;
344 -> 345 ;
346 [label="gini = 0.291\nsamples = 17\nvalue = [14, 3]"] ;
344 -> 346 ;
347 [label="workclass_Local-gov <= 0.5\ngini = 0.313\nsamples = 252\nvalue = [203, 49]"] ;
343 -> 347 ;
348 [label="gini = 0.288\nsamples = 224\nvalue = [185, 39]"] ;
347 -> 348 ;
349 [label="gini = 0.459\nsamples = 28\nvalue = [18, 10]"] ;
347 -> 349 ;
350 [label="gender <= 0.5\ngini = 0.425\nsamples = 202\nvalue = [140, 62]"] ;
342 -> 350 ;
351 [label="from_US <= 0.5\ngini = 0.348\nsamples = 98\nvalue = [76, 22]"] ;
350 -> 351 ;
352 [label="gini = 0.0\nsamples = 14\nvalue = [14, 0]"] ;
351 -> 352 ;
353 [label="gini = 0.387\nsamples = 84\nvalue = [62, 22]"] ;
351 -> 353 ;
354 [label="workclass_Self-emp-not-inc <= 0.5\ngini = 0.473\nsamples = 104\nvalue = [64, 40]"] ;
350 -> 354 ;
355 [label="gini = 0.496\nsamples = 79\nvalue = [43, 36]"] ;
354 -> 355 ;
356 [label="gini = 0.269\nsamples = 25\nvalue = [21, 4]"] ;
354 -> 356 ;
357 [label="occupation_Exec-managerial <= 0.5\ngini = 0.26\nsamples = 13\nvalue = [2, 11]"] ;
341 -> 357 ;
358 [label="gini = 0.408\nsamples = 7\nvalue = [2, 5]"] ;
357 -> 358 ;
359 [label="gini = 0.0\nsamples = 6\nvalue = [0, 6]"] ;
357 -> 359 ;
360 [label="capital-gain <= 8028.5\ngini = 0.027\nsamples = 72\nvalue = [1, 71]"] ;
316 -> 360 ;
361 [label="gini = 0.375\nsamples = 4\nvalue = [1, 3]"] ;
360 -> 361 ;
362 [label="gini = 0.0\nsamples = 68\nvalue = [0, 68]"] ;
360 -> 362 ;
363 [label="capital-gain <= 4668.5\ngini = 0.449\nsamples = 1032\nvalue = [680, 352]"] ;
295 -> 363 ;
364 [label="hours-per-week <= 44.5\ngini = 0.388\nsamples = 914\nvalue = [673, 241]"] ;
363 -> 364 ;
365 [label="age <= 33.5\ngini = 0.303\nsamples = 553\nvalue = [450, 103]"] ;
364 -> 365 ;
366 [label="workclass_Private <= 0.5\ngini = 0.111\nsamples = 152\nvalue = [143, 9]"] ;
365 -> 366 ;
367 [label="gini = 0.0\nsamples = 56\nvalue = [56, 0]"] ;
366 -> 367 ;
368 [label="occupation_Prof-specialty <= 0.5\ngini = 0.17\nsamples = 96\nvalue = [87, 9]"] ;
366 -> 368 ;
369 [label="age <= 30.5\ngini = 0.045\nsamples = 43\nvalue = [42, 1]"] ;
368 -> 369 ;
370 [label="gini = 0.0\nsamples = 31\nvalue = [31, 0]"] ;
369 -> 370 ;
371 [label="gender <= 0.5\ngini = 0.153\nsamples = 12\nvalue = [11, 1]"] ;
369 -> 371 ;
372 [label="gini = 0.0\nsamples = 8\nvalue = [8, 0]"] ;
371 -> 372 ;
373 [label="gini = 0.375\nsamples = 4\nvalue = [3, 1]"] ;
371 -> 373 ;
374 [label="hours-per-week <= 37.5\ngini = 0.256\nsamples = 53\nvalue = [45, 8]"] ;
368 -> 374 ;
375 [label="gini = 0.0\nsamples = 16\nvalue = [16, 0]"] ;
374 -> 375 ;
376 [label="educational-num <= 15.5\ngini = 0.339\nsamples = 37\nvalue = [29, 8]"] ;
374 -> 376 ;
377 [label="gini = 0.291\nsamples = 34\nvalue = [28, 6]"] ;
376 -> 377 ;
378 [label="gini = 0.444\nsamples = 3\nvalue = [1, 2]"] ;
376 -> 378 ;
379 [label="capital-loss <= 2405.5\ngini = 0.359\nsamples = 401\nvalue = [307, 94]"] ;
365 -> 379 ;
380 [label="gender <= 0.5\ngini = 0.348\nsamples = 396\nvalue = [307, 89]"] ;
379 -> 380 ;
381 [label="occupation_Exec-managerial <= 0.5\ngini = 0.284\nsamples = 251\nvalue = [208, 43]"] ;
380 -> 381 ;
382 [label="workclass_Federal-gov <= 0.5\ngini = 0.24\nsamples = 215\nvalue = [185, 30]"] ;
381 -> 382 ;
383 [label="gini = 0.217\nsamples = 202\nvalue = [177, 25]"] ;
382 -> 383 ;
384 [label="gini = 0.473\nsamples = 13\nvalue = [8, 5]"] ;
382 -> 384 ;
385 [label="hours-per-week <= 36.5\ngini = 0.461\nsamples = 36\nvalue = [23, 13]"] ;
381 -> 385 ;
386 [label="gini = 0.0\nsamples = 6\nvalue = [6, 0]"] ;
385 -> 386 ;
387 [label="gini = 0.491\nsamples = 30\nvalue = [17, 13]"] ;
385 -> 387 ;
388 [label="educational-num <= 14.5\ngini = 0.433\nsamples = 145\nvalue = [99, 46]"] ;
380 -> 388 ;
389 [label="is_white <= 0.5\ngini = 0.37\nsamples = 102\nvalue = [77, 25]"] ;
388 -> 389 ;
390 [label="gini = 0.0\nsamples = 14\nvalue = [14, 0]"] ;
389 -> 390 ;
391 [label="gini = 0.407\nsamples = 88\nvalue = [63, 25]"] ;
389 -> 391 ;
392 [label="age <= 45.5\ngini = 0.5\nsamples = 43\nvalue = [22, 21]"] ;
388 -> 392 ;
393 [label="gini = 0.415\nsamples = 17\nvalue = [5, 12]"] ;
392 -> 393 ;
394 [label="gini = 0.453\nsamples = 26\nvalue = [17, 9]"] ;
392 -> 394 ;
395 [label="gini = 0.0\nsamples = 5\nvalue = [0, 5]"] ;
379 -> 395 ;
396 [label="age <= 31.5\ngini = 0.472\nsamples = 361\nvalue = [223, 138]"] ;
364 -> 396 ;
397 [label="from_US <= 0.5\ngini = 0.283\nsamples = 82\nvalue = [68, 14]"] ;
396 -> 397 ;
398 [label="workclass_State-gov <= 0.5\ngini = 0.469\nsamples = 16\nvalue = [10, 6]"] ;
397 -> 398 ;
399 [label="occupation_Prof-specialty <= 0.5\ngini = 0.497\nsamples = 13\nvalue = [7, 6]"] ;
398 -> 399 ;
400 [label="gini = 0.278\nsamples = 6\nvalue = [5, 1]"] ;
399 -> 400 ;
401 [label="gini = 0.408\nsamples = 7\nvalue = [2, 5]"] ;
399 -> 401 ;
402 [label="gini = 0.0\nsamples = 3\nvalue = [3, 0]"] ;
398 -> 402 ;
403 [label="occupation_Exec-managerial <= 0.5\ngini = 0.213\nsamples = 66\nvalue = [58, 8]"] ;
397 -> 403 ;
404 [label="workclass_Private <= 0.5\ngini = 0.183\nsamples = 59\nvalue = [53, 6]"] ;
403 -> 404 ;
405 [label="gini = 0.0\nsamples = 16\nvalue = [16, 0]"] ;
404 -> 405 ;
406 [label="occupation_Prof-specialty <= 0.5\ngini = 0.24\nsamples = 43\nvalue = [37, 6]"] ;
404 -> 406 ;
407 [label="gini = 0.0\nsamples = 6\nvalue = [6, 0]"] ;
406 -> 407 ;
408 [label="gini = 0.272\nsamples = 37\nvalue = [31, 6]"] ;
406 -> 408 ;
409 [label="gini = 0.408\nsamples = 7\nvalue = [5, 2]"] ;
403 -> 409 ;
410 [label="occupation_Exec-managerial <= 0.5\ngini = 0.494\nsamples = 279\nvalue = [155, 124]"] ;
396 -> 410 ;
411 [label="educational-num <= 14.5\ngini = 0.474\nsamples = 212\nvalue = [130, 82]"] ;
410 -> 411 ;
412 [label="age <= 54.5\ngini = 0.41\nsamples = 139\nvalue = [99, 40]"] ;
411 -> 412 ;
413 [label="age <= 49.5\ngini = 0.448\nsamples = 112\nvalue = [74, 38]"] ;
412 -> 413 ;
414 [label="gini = 0.404\nsamples = 96\nvalue = [69, 27]"] ;
413 -> 414 ;
415 [label="gini = 0.43\nsamples = 16\nvalue = [5, 11]"] ;
413 -> 415 ;
416 [label="age <= 62.5\ngini = 0.137\nsamples = 27\nvalue = [25, 2]"] ;
412 -> 416 ;
417 [label="gini = 0.0\nsamples = 18\nvalue = [18, 0]"] ;
416 -> 417 ;
418 [label="gini = 0.346\nsamples = 9\nvalue = [7, 2]"] ;
416 -> 418 ;
419 [label="capital-loss <= 782.0\ngini = 0.489\nsamples = 73\nvalue = [31, 42]"] ;
411 -> 419 ;
420 [label="age <= 57.5\ngini = 0.498\nsamples = 66\nvalue = [31, 35]"] ;
419 -> 420 ;
421 [label="gini = 0.485\nsamples = 58\nvalue = [24, 34]"] ;
420 -> 421 ;
422 [label="gini = 0.219\nsamples = 8\nvalue = [7, 1]"] ;
420 -> 422 ;
423 [label="gini = 0.0\nsamples = 7\nvalue = [0, 7]"] ;
419 -> 423 ;
424 [label="is_white <= 0.5\ngini = 0.468\nsamples = 67\nvalue = [25, 42]"] ;
410 -> 424 ;
425 [label="age <= 46.0\ngini = 0.18\nsamples = 10\nvalue = [1, 9]"] ;
424 -> 425 ;
426 [label="gini = 0.0\nsamples = 7\nvalue = [0, 7]"] ;
425 -> 426 ;
427 [label="gini = 0.444\nsamples = 3\nvalue = [1, 2]"] ;
425 -> 427 ;
428 [label="age <= 46.5\ngini = 0.488\nsamples = 57\nvalue = [24, 33]"] ;
424 -> 428 ;
429 [label="hours-per-week <= 52.5\ngini = 0.499\nsamples = 40\nvalue = [21, 19]"] ;
428 -> 429 ;
430 [label="gini = 0.498\nsamples = 30\nvalue = [14, 16]"] ;
429 -> 430 ;
431 [label="gini = 0.42\nsamples = 10\nvalue = [7, 3]"] ;
429 -> 431 ;
432 [label="workclass_Private <= 0.5\ngini = 0.291\nsamples = 17\nvalue = [3, 14]"] ;
428 -> 432 ;
433 [label="gini = 0.42\nsamples = 10\nvalue = [3, 7]"] ;
432 -> 433 ;
434 [label="gini = 0.0\nsamples = 7\nvalue = [0, 7]"] ;
432 -> 434 ;
435 [label="capital-gain <= 7139.5\ngini = 0.112\nsamples = 118\nvalue = [7, 111]"] ;
363 -> 435 ;
436 [label="workclass_Private <= 0.5\ngini = 0.444\nsamples = 21\nvalue = [7, 14]"] ;
435 -> 436 ;
437 [label="gini = 0.198\nsamples = 9\nvalue = [1, 8]"] ;
436 -> 437 ;
438 [label="capital-gain <= 4826.0\ngini = 0.5\nsamples = 12\nvalue = [6, 6]"] ;
436 -> 438 ;
439 [label="gini = 0.0\nsamples = 6\nvalue = [0, 6]"] ;
438 -> 439 ;
440 [label="gini = 0.0\nsamples = 6\nvalue = [6, 0]"] ;
438 -> 440 ;
441 [label="gini = 0.0\nsamples = 97\nvalue = [0, 97]"] ;
435 -> 441 ;
442 [label="capital-gain <= 5095.5\ngini = 0.418\nsamples = 4591\nvalue = [1365, 3226]"] ;
294 -> 442 ;
443 [label="hours-per-week <= 31.5\ngini = 0.454\nsamples = 3918\nvalue = [1363, 2555]"] ;
442 -> 443 ;
444 [label="gender <= 0.5\ngini = 0.467\nsamples = 277\nvalue = [174, 103]"] ;
443 -> 444 ;
445 [label="age <= 53.5\ngini = 0.49\nsamples = 84\nvalue = [36, 48]"] ;
444 -> 445 ;
446 [label="hours-per-week <= 29.0\ngini = 0.472\nsamples = 76\nvalue = [29, 47]"] ;
445 -> 446 ;
447 [label="age <= 35.5\ngini = 0.492\nsamples = 62\nvalue = [27, 35]"] ;
446 -> 447 ;
448 [label="occupation_Prof-specialty <= 0.5\ngini = 0.453\nsamples = 26\nvalue = [17, 9]"] ;
447 -> 448 ;
449 [label="educational-num <= 13.5\ngini = 0.305\nsamples = 16\nvalue = [13, 3]"] ;
448 -> 449 ;
450 [label="gini = 0.153\nsamples = 12\nvalue = [11, 1]"] ;
449 -> 450 ;
451 [label="gini = 0.5\nsamples = 4\nvalue = [2, 2]"] ;
449 -> 451 ;
452 [label="hours-per-week <= 15.0\ngini = 0.48\nsamples = 10\nvalue = [4, 6]"] ;
448 -> 452 ;
453 [label="gini = 0.444\nsamples = 3\nvalue = [2, 1]"] ;
452 -> 453 ;
454 [label="gini = 0.408\nsamples = 7\nvalue = [2, 5]"] ;
452 -> 454 ;
455 [label="workclass_Local-gov <= 0.5\ngini = 0.401\nsamples = 36\nvalue = [10, 26]"] ;
447 -> 455 ;
456 [label="occupation_Prof-specialty <= 0.5\ngini = 0.32\nsamples = 30\nvalue = [6, 24]"] ;
455 -> 456 ;
457 [label="gini = 0.444\nsamples = 15\nvalue = [5, 10]"] ;
456 -> 457 ;
458 [label="gini = 0.124\nsamples = 15\nvalue = [1, 14]"] ;
456 -> 458 ;
459 [label="gini = 0.444\nsamples = 6\nvalue = [4, 2]"] ;
455 -> 459 ;
460 [label="occupation_Prof-specialty <= 0.5\ngini = 0.245\nsamples = 14\nvalue = [2, 12]"] ;
446 -> 460 ;
461 [label="gini = 0.408\nsamples = 7\nvalue = [2, 5]"] ;
460 -> 461 ;
462 [label="gini = 0.0\nsamples = 7\nvalue = [0, 7]"] ;
460 -> 462 ;
463 [label="gini = 0.219\nsamples = 8\nvalue = [7, 1]"] ;
445 -> 463 ;
464 [label="educational-num <= 14.5\ngini = 0.408\nsamples = 193\nvalue = [138, 55]"] ;
444 -> 464 ;
465 [label="capital-loss <= 1706.0\ngini = 0.364\nsamples = 159\nvalue = [121, 38]"] ;
464 -> 465 ;
466 [label="occupation_Sales <= 0.5\ngini = 0.334\nsamples = 151\nvalue = [119, 32]"] ;
465 -> 466 ;
467 [label="hours-per-week <= 25.5\ngini = 0.299\nsamples = 120\nvalue = [98, 22]"] ;
466 -> 467 ;
468 [label="capital-gain <= 4164.0\ngini = 0.375\nsamples = 84\nvalue = [63, 21]"] ;
467 -> 468 ;
469 [label="gini = 0.359\nsamples = 81\nvalue = [62, 19]"] ;
468 -> 469 ;
470 [label="gini = 0.444\nsamples = 3\nvalue = [1, 2]"] ;
468 -> 470 ;
471 [label="occupation_Other-service <= 0.5\ngini = 0.054\nsamples = 36\nvalue = [35, 1]"] ;
467 -> 471 ;
472 [label="gini = 0.0\nsamples = 33\nvalue = [33, 0]"] ;
471 -> 472 ;
473 [label="gini = 0.444\nsamples = 3\nvalue = [2, 1]"] ;
471 -> 473 ;
474 [label="age <= 35.5\ngini = 0.437\nsamples = 31\nvalue = [21, 10]"] ;
466 -> 474 ;
475 [label="gini = 0.0\nsamples = 6\nvalue = [6, 0]"] ;
474 -> 475 ;
476 [label="age <= 66.5\ngini = 0.48\nsamples = 25\nvalue = [15, 10]"] ;
474 -> 476 ;
477 [label="gini = 0.5\nsamples = 20\nvalue = [10, 10]"] ;
476 -> 477 ;
478 [label="gini = 0.0\nsamples = 5\nvalue = [5, 0]"] ;
476 -> 478 ;
479 [label="gini = 0.375\nsamples = 8\nvalue = [2, 6]"] ;
465 -> 479 ;
480 [label="workclass_Self-emp-inc <= 0.5\ngini = 0.5\nsamples = 34\nvalue = [17, 17]"] ;
464 -> 480 ;
481 [label="hours-per-week <= 24.0\ngini = 0.495\nsamples = 31\nvalue = [17, 14]"] ;
480 -> 481 ;
482 [label="age <= 73.5\ngini = 0.432\nsamples = 19\nvalue = [13, 6]"] ;
481 -> 482 ;
483 [label="workclass_Private <= 0.5\ngini = 0.375\nsamples = 16\nvalue = [12, 4]"] ;
482 -> 483 ;
484 [label="gini = 0.32\nsamples = 10\nvalue = [8, 2]"] ;
483 -> 484 ;
485 [label="gini = 0.444\nsamples = 6\nvalue = [4, 2]"] ;
483 -> 485 ;
486 [label="gini = 0.444\nsamples = 3\nvalue = [1, 2]"] ;
482 -> 486 ;
487 [label="age <= 68.0\ngini = 0.444\nsamples = 12\nvalue = [4, 8]"] ;
481 -> 487 ;
488 [label="gini = 0.219\nsamples = 8\nvalue = [1, 7]"] ;
487 -> 488 ;
489 [label="gini = 0.375\nsamples = 4\nvalue = [3, 1]"] ;
487 -> 489 ;
490 [label="gini = 0.0\nsamples = 3\nvalue = [0, 3]"] ;
480 -> 490 ;
491 [label="capital-loss <= 1794.0\ngini = 0.44\nsamples = 3641\nvalue = [1189, 2452]"] ;
443 -> 491 ;
492 [label="age <= 28.5\ngini = 0.461\nsamples = 3271\nvalue = [1176, 2095]"] ;
491 -> 492 ;
493 [label="age <= 25.5\ngini = 0.463\nsamples = 225\nvalue = [143, 82]"] ;
492 -> 493 ;
494 [label="hours-per-week <= 52.5\ngini = 0.346\nsamples = 72\nvalue = [56, 16]"] ;
493 -> 494 ;
495 [label="age <= 23.5\ngini = 0.301\nsamples = 65\nvalue = [53, 12]"] ;
494 -> 495 ;
496 [label="gini = 0.0\nsamples = 10\nvalue = [10, 0]"] ;
495 -> 496 ;
497 [label="occupation_Prof-specialty <= 0.5\ngini = 0.341\nsamples = 55\nvalue = [43, 12]"] ;
495 -> 497 ;
498 [label="gini = 0.284\nsamples = 35\nvalue = [29, 6]"] ;
497 -> 498 ;
499 [label="gini = 0.42\nsamples = 20\nvalue = [14, 6]"] ;
497 -> 499 ;
500 [label="gini = 0.49\nsamples = 7\nvalue = [3, 4]"] ;
494 -> 500 ;
501 [label="age <= 26.5\ngini = 0.491\nsamples = 153\nvalue = [87, 66]"] ;
493 -> 501 ;
502 [label="workclass_Private <= 0.5\ngini = 0.469\nsamples = 32\nvalue = [12, 20]"] ;
501 -> 502 ;
503 [label="gini = 0.5\nsamples = 8\nvalue = [4, 4]"] ;
502 -> 503 ;
504 [label="gender <= 0.5\ngini = 0.444\nsamples = 24\nvalue = [8, 16]"] ;
502 -> 504 ;
505 [label="gini = 0.0\nsamples = 6\nvalue = [0, 6]"] ;
504 -> 505 ;
506 [label="gini = 0.494\nsamples = 18\nvalue = [8, 10]"] ;
504 -> 506 ;
507 [label="is_white <= 0.5\ngini = 0.471\nsamples = 121\nvalue = [75, 46]"] ;
501 -> 507 ;
508 [label="gender <= 0.5\ngini = 0.245\nsamples = 14\nvalue = [12, 2]"] ;
507 -> 508 ;
509 [label="gini = 0.0\nsamples = 7\nvalue = [7, 0]"] ;
508 -> 509 ;
510 [label="gini = 0.408\nsamples = 7\nvalue = [5, 2]"] ;
508 -> 510 ;
511 [label="gender <= 0.5\ngini = 0.484\nsamples = 107\nvalue = [63, 44]"] ;
507 -> 511 ;
512 [label="gini = 0.465\nsamples = 19\nvalue = [7, 12]"] ;
511 -> 512 ;
513 [label="gini = 0.463\nsamples = 88\nvalue = [56, 32]"] ;
511 -> 513 ;
514 [label="capital-gain <= 3120.0\ngini = 0.448\nsamples = 3046\nvalue = [1033, 2013]"] ;
492 -> 514 ;
515 [label="occupation_Exec-managerial <= 0.5\ngini = 0.442\nsamples = 2987\nvalue = [987, 2000]"] ;
514 -> 515 ;
516 [label="occupation_Prof-specialty <= 0.5\ngini = 0.464\nsamples = 2126\nvalue = [777, 1349]"] ;
515 -> 516 ;
517 [label="occupation_Other-service <= 0.5\ngini = 0.495\nsamples = 989\nvalue = [445, 544]"] ;
516 -> 517 ;
518 [label="gini = 0.492\nsamples = 947\nvalue = [413, 534]"] ;
517 -> 518 ;
519 [label="gini = 0.363\nsamples = 42\nvalue = [32, 10]"] ;
517 -> 519 ;
520 [label="educational-num <= 14.5\ngini = 0.413\nsamples = 1137\nvalue = [332, 805]"] ;
516 -> 520 ;
521 [label="gini = 0.446\nsamples = 823\nvalue = [276, 547]"] ;
520 -> 521 ;
522 [label="gini = 0.293\nsamples = 314\nvalue = [56, 258]"] ;
520 -> 522 ;
523 [label="workclass_Self-emp-not-inc <= 0.5\ngini = 0.369\nsamples = 861\nvalue = [210, 651]"] ;
515 -> 523 ;
524 [label="capital-loss <= 629.0\ngini = 0.345\nsamples = 784\nvalue = [174, 610]"] ;
523 -> 524 ;
525 [label="gini = 0.337\nsamples = 777\nvalue = [167, 610]"] ;
524 -> 525 ;
526 [label="gini = 0.0\nsamples = 7\nvalue = [7, 0]"] ;
524 -> 526 ;
527 [label="age <= 61.0\ngini = 0.498\nsamples = 77\nvalue = [36, 41]"] ;
523 -> 527 ;
528 [label="gini = 0.492\nsamples = 73\nvalue = [32, 41]"] ;
527 -> 528 ;
529 [label="gini = 0.0\nsamples = 4\nvalue = [4, 0]"] ;
527 -> 529 ;
530 [label="capital-gain <= 4225.0\ngini = 0.344\nsamples = 59\nvalue = [46, 13]"] ;
514 -> 530 ;
531 [label="gini = 0.0\nsamples = 22\nvalue = [22, 0]"] ;
530 -> 531 ;
532 [label="capital-gain <= 4447.0\ngini = 0.456\nsamples = 37\nvalue = [24, 13]"] ;
530 -> 532 ;
533 [label="gini = 0.0\nsamples = 11\nvalue = [0, 11]"] ;
532 -> 533 ;
534 [label="capital-gain <= 4973.5\ngini = 0.142\nsamples = 26\nvalue = [24, 2]"] ;
532 -> 534 ;
535 [label="gini = 0.444\nsamples = 6\nvalue = [4, 2]"] ;
534 -> 535 ;
536 [label="gini = 0.0\nsamples = 20\nvalue = [20, 0]"] ;
534 -> 536 ;
537 [label="capital-loss <= 1978.5\ngini = 0.068\nsamples = 370\nvalue = [13, 357]"] ;
491 -> 537 ;
538 [label="workclass_Federal-gov <= 0.5\ngini = 0.013\nsamples = 313\nvalue = [2, 311]"] ;
537 -> 538 ;
539 [label="age <= 28.5\ngini = 0.007\nsamples = 298\nvalue = [1, 297]"] ;
538 -> 539 ;
540 [label="hours-per-week <= 52.5\ngini = 0.18\nsamples = 10\nvalue = [1, 9]"] ;
539 -> 540 ;
541 [label="gini = 0.0\nsamples = 7\nvalue = [0, 7]"] ;
540 -> 541 ;
542 [label="gini = 0.444\nsamples = 3\nvalue = [1, 2]"] ;
540 -> 542 ;
543 [label="gini = 0.0\nsamples = 288\nvalue = [0, 288]"] ;
539 -> 543 ;
544 [label="occupation_Exec-managerial <= 0.5\ngini = 0.124\nsamples = 15\nvalue = [1, 14]"] ;
538 -> 544 ;
545 [label="gini = 0.0\nsamples = 12\nvalue = [0, 12]"] ;
544 -> 545 ;
546 [label="gini = 0.444\nsamples = 3\nvalue = [1, 2]"] ;
544 -> 546 ;
547 [label="educational-num <= 15.5\ngini = 0.311\nsamples = 57\nvalue = [11, 46]"] ;
537 -> 547 ;
548 [label="age <= 35.5\ngini = 0.26\nsamples = 52\nvalue = [8, 44]"] ;
547 -> 548 ;
549 [label="gini = 0.48\nsamples = 5\nvalue = [3, 2]"] ;
548 -> 549 ;
550 [label="capital-loss <= 2151.5\ngini = 0.19\nsamples = 47\nvalue = [5, 42]"] ;
548 -> 550 ;
551 [label="gini = 0.0\nsamples = 3\nvalue = [3, 0]"] ;
550 -> 551 ;
552 [label="workclass_Self-emp-inc <= 0.5\ngini = 0.087\nsamples = 44\nvalue = [2, 42]"] ;
550 -> 552 ;
553 [label="gini = 0.165\nsamples = 22\nvalue = [2, 20]"] ;
552 -> 553 ;
554 [label="gini = 0.0\nsamples = 22\nvalue = [0, 22]"] ;
552 -> 554 ;
555 [label="gini = 0.48\nsamples = 5\nvalue = [3, 2]"] ;
547 -> 555 ;
556 [label="capital-gain <= 7073.5\ngini = 0.006\nsamples = 673\nvalue = [2, 671]"] ;
442 -> 556 ;
557 [label="capital-gain <= 6466.0\ngini = 0.1\nsamples = 38\nvalue = [2, 36]"] ;
556 -> 557 ;
558 [label="gini = 0.0\nsamples = 33\nvalue = [0, 33]"] ;
557 -> 558 ;
559 [label="gini = 0.48\nsamples = 5\nvalue = [2, 3]"] ;
557 -> 559 ;
560 [label="gini = 0.0\nsamples = 635\nvalue = [0, 635]"] ;
556 -> 560 ;
}